digraph Tree {
node [shape=box, style="filled, rounded", color="black", fontname=helvetica] ;
graph [ranksep=equally, splines=polyline] ;
edge [fontname=helvetica] ;
0 [label="bedrooms <= 1.5\nmse = 28548.77\nsamples = 70914\nvalue = 199.96", fillcolor="#fef9f6"] ;
1 [label="room_type_Entire home/apt <= 0.5\nmse = 14384.02\nsamples = 47936\nvalue = 146.9", fillcolor="#fefbf9"] ;
0 -> 1 [labeldistance=2.5, labelangle=45, headlabel="True"] ;
2 [label="location_Boston <= 0.5\nmse = 3638.25\nsamples = 20127\nvalue = 92.15", fillcolor="#fffdfb"] ;
1 -> 2 ;
3 [label="accommodates <= 3.5\nmse = 1481.76\nsamples = 10282\nvalue = 77.16", fillcolor="#fffdfc"] ;
2 -> 3 ;
4 [label="(...)", fillcolor="#C0C0C0"] ;
3 -> 4 ;
7211 [label="(...)", fillcolor="#C0C0C0"] ;
3 -> 7211 ;
7920 [label="property_type_Other <= 0.5\nmse = 5412.51\nsamples = 9845\nvalue = 107.83", fillcolor="#fefcfb"] ;
2 -> 7920 ;
7921 [label="(...)", fillcolor="#C0C0C0"] ;
7920 -> 7921 ;
15012 [label="(...)", fillcolor="#C0C0C0"] ;
7920 -> 15012 ;
15183 [label="location_Boston <= 0.5\nmse = 18425.58\nsamples = 27809\nvalue = 186.58", fillcolor="#fefaf7"] ;
1 -> 15183 ;
15184 [label="host_listings_count <= 5.5\nmse = 3171.77\nsamples = 15892\nvalue = 136.85", fillcolor="#fefbf9"] ;
15183 -> 15184 ;
15185 [label="(...)", fillcolor="#C0C0C0"] ;
15184 -> 15185 ;
24960 [label="(...)", fillcolor="#C0C0C0"] ;
15184 -> 24960 ;
27459 [label="availability_60 <= 15.5\nmse = 31031.71\nsamples = 11917\nvalue = 252.6", fillcolor="#fdf8f3"] ;
15183 -> 27459 ;
27460 [label="(...)", fillcolor="#C0C0C0"] ;
27459 -> 27460 ;
30061 [label="(...)", fillcolor="#C0C0C0"] ;
27459 -> 30061 ;
35404 [label="calculated_host_listings_count <= 14.5\nmse = 39979.31\nsamples = 22978\nvalue = 309.73", fillcolor="#fdf6f1"] ;
0 -> 35404 [labeldistance=2.5, labelangle=-45, headlabel="False"] ;
35405 [label="bathrooms <= 1.75\nmse = 29958.88\nsamples = 17839\nvalue = 276.85", fillcolor="#fdf7f2"] ;
35404 -> 35405 ;
35406 [label="location_Boston <= 0.5\nmse = 18015.93\nsamples = 9457\nvalue = 227.41", fillcolor="#fef8f5"] ;
35405 -> 35406 ;
35407 [label="(...)", fillcolor="#C0C0C0"] ;
35406 -> 35407 ;
39254 [label="(...)", fillcolor="#C0C0C0"] ;
35406 -> 39254 ;
42069 [label="location_Boston <= 0.5\nmse = 37531.22\nsamples = 8382\nvalue = 332.21", fillcolor="#fdf5ef"] ;
35405 -> 42069 ;
42070 [label="(...)", fillcolor="#C0C0C0"] ;
42069 -> 42070 ;
46573 [label="(...)", fillcolor="#C0C0C0"] ;
42069 -> 46573 ;
47948 [label="month <= 3.5\nmse = 57993.91\nsamples = 5139\nvalue = 423.99", fillcolor="#fcf2eb"] ;
35404 -> 47948 ;
47949 [label="availability_365 <= 289.0\nmse = 10109.72\nsamples = 1289\nvalue = 270.96", fillcolor="#fdf7f3"] ;
47948 -> 47949 ;
47950 [label="(...)", fillcolor="#C0C0C0"] ;
47949 -> 47950 ;
48115 [label="(...)", fillcolor="#C0C0C0"] ;
47949 -> 48115 ;
48528 [label="month <= 8.5\nmse = 63617.35\nsamples = 3850\nvalue = 476.26", fillcolor="#fcf1e8"] ;
47948 -> 48528 ;
48529 [label="(...)", fillcolor="#C0C0C0"] ;
48528 -> 48529 ;
49312 [label="(...)", fillcolor="#C0C0C0"] ;
48528 -> 49312 ;
{rank=same ; 0} ;
{rank=same ; 1; 35404} ;
{rank=same ; 2; 15183; 35405; 47948} ;
{rank=same ; 3; 7920; 15184; 27459; 35406; 42069; 47949; 48528} ;
{rank=same ; 4; 7211; 7921; 15012; 15185; 24960; 27460; 30061; 35407; 39254; 42070; 46573; 47950; 48115; 48529; 49312} ;
}